<?xml version="1.0"?>
<opencv_storage>
<cascade>
  <stageType>BOOST</stageType>
  <featureType>HAAR</featureType>
  <height>20</height>
  <width>76</width>
  <stageParams>
    <boostType>GAB</boostType>
    <minHitRate>9.9989998340606689e-01</minHitRate>
    <maxFalseAlarm>5.0000000000000000e-01</maxFalseAlarm>
    <weightTrimRate>9.4999999999999996e-01</weightTrimRate>
    <maxDepth>1</maxDepth>
    <maxWeakCount>100</maxWeakCount></stageParams>
  <featureParams>
    <maxCatCount>0</maxCatCount>
    <featSize>1</featSize>
    <mode>ALL</mode></featureParams>
  <stageNum>12</stageNum>
  <stages>
    <!-- stage 0 -->
    <_>
      <maxWeakCount>2</maxWeakCount>
      <stageThreshold>-9.7942203283309937e-02</stageThreshold>
      <weakClassifiers>
        <_>
          <internalNodes>
            0 -1 17 -2.3710740730166435e-02</internalNodes>
          <leafValues>
            9.3047034740447998e-01 -8.3388704061508179e-01</leafValues></_>
        <_>
          <internalNodes>
            0 -1 48 -3.1907930970191956e-02</internalNodes>
          <leafValues>
            -9.6321386098861694e-01 7.3594486713409424e-01</leafValues></_></weakClassifiers></_>
    <!-- stage 1 -->
    <_>
      <maxWeakCount>3</maxWeakCount>
      <stageThreshold>-7.3786735534667969e-01</stageThreshold>
      <weakClassifiers>
        <_>
          <internalNodes>
            0 -1 13 -2.3170329630374908e-02</internalNodes>
          <leafValues>
            8.4769541025161743e-01 -7.5257730484008789e-01</leafValues></_>
        <_>
          <internalNodes>
            0 -1 10 5.2901227027177811e-03</internalNodes>
          <leafValues>
            -7.2199892997741699e-01 7.7289772033691406e-01</leafValues></_>
        <_>
          <internalNodes>
            0 -1 40 7.6696258038282394e-03</internalNodes>
          <leafValues>
            -6.5949004888534546e-01 7.3670893907546997e-01</leafValues></_></weakClassifiers></_>
    <!-- stage 2 -->
    <_>
      <maxWeakCount>3</maxWeakCount>
      <stageThreshold>2.8171589970588684e-01</stageThreshold>
      <weakClassifiers>
        <_>
          <internalNodes>
            0 -1 18 4.0757535025477409e-03</internalNodes>
          <leafValues>
            -8.0645161867141724e-01 6.6143107414245605e-01</leafValues></_>
        <_>
          <internalNodes>
            0 -1 25 1.0574900545179844e-02</internalNodes>
          <leafValues>
            -7.6645630598068237e-01 6.0759884119033813e-01</leafValues></_>
        <_>
          <internalNodes>
            0 -1 22 -3.7317682057619095e-02</internalNodes>
          <leafValues>
            -9.5854115486145020e-01 4.8056867718696594e-01</leafValues></_></weakClassifiers></_>
    <!-- stage 3 -->
    <_>
      <maxWeakCount>5</maxWeakCount>
      <stageThreshold>-4.2502281069755554e-01</stageThreshold>
      <weakClassifiers>
        <_>
          <internalNodes>
            0 -1 41 -3.7963981740176678e-03</internalNodes>
          <leafValues>
            6.4973729848861694e-01 -7.6255708932876587e-01</leafValues></_>
        <_>
          <internalNodes>
            0 -1 9 1.2409407645463943e-02</internalNodes>
          <leafValues>
            -5.7760161161422729e-01 7.2960084676742554e-01</leafValues></_>
        <_>
          <internalNodes>
            0 -1 29 5.3871041163802147e-03</internalNodes>
          <leafValues>
            -4.1184538602828979e-01 8.7085664272308350e-01</leafValues></_>
        <_>
          <internalNodes>
            0 -1 38 -8.5990363731980324e-03</internalNodes>
          <leafValues>
            8.2537084817886353e-01 -3.5499182343482971e-01</leafValues></_>
        <_>
          <internalNodes>
            0 -1 11 -8.4691857919096947e-03</internalNodes>
          <leafValues>
            4.8537677526473999e-01 -8.0559206008911133e-01</leafValues></_></weakClassifiers></_>
    <!-- stage 4 -->
    <_>
      <maxWeakCount>5</maxWeakCount>
      <stageThreshold>-2.8139984607696533e-01</stageThreshold>
      <weakClassifiers>
        <_>
          <internalNodes>
            0 -1 46 6.8048769608139992e-03</internalNodes>
          <leafValues>
            -4.7572815418243408e-01 7.2972971200942993e-01</leafValues></_>
        <_>
          <internalNodes>
            0 -1 47 1.8587009981274605e-03</internalNodes>
          <leafValues>
            -3.5468098521232605e-01 7.6580554246902466e-01</leafValues></_>
        <_>
          <internalNodes>
            0 -1 45 -1.8398302793502808e-01</internalNodes>
          <leafValues>
            -8.5890811681747437e-01 4.1650223731994629e-01</leafValues></_>
        <_>
          <internalNodes>
            0 -1 43 -8.9976433664560318e-03</internalNodes>
          <leafValues>
            7.1455138921737671e-01 -4.8711198568344116e-01</leafValues></_>
        <_>
          <internalNodes>
            0 -1 27 4.0329862385988235e-03</internalNodes>
          <leafValues>
            -4.2712047696113586e-01 7.5317913293838501e-01</leafValues></_></weakClassifiers></_>
    <!-- stage 5 -->
    <_>
      <maxWeakCount>3</maxWeakCount>
      <stageThreshold>1.2421596795320511e-01</stageThreshold>
      <weakClassifiers>
        <_>
          <internalNodes>
            0 -1 32 -2.0789522677659988e-02</internalNodes>
          <leafValues>
            4.9923196434974670e-01 -8.7050360441207886e-01</leafValues></_>
        <_>
          <internalNodes>
            0 -1 3 -4.0528603130951524e-04</internalNodes>
          <leafValues>
            -9.3930768966674805e-01 3.0175888538360596e-01</leafValues></_>
        <_>
          <internalNodes>
            0 -1 7 -2.4244286119937897e-02</internalNodes>
          <leafValues>
            6.9296067953109741e-01 -4.9184033274650574e-01</leafValues></_></weakClassifiers></_>
    <!-- stage 6 -->
    <_>
      <maxWeakCount>6</maxWeakCount>
      <stageThreshold>-5.9438049793243408e-01</stageThreshold>
      <weakClassifiers>
        <_>
          <internalNodes>
            0 -1 16 5.0875777378678322e-04</internalNodes>
          <leafValues>
            5.2125984430313110e-01 -8.1935483217239380e-01</leafValues></_>
        <_>
          <internalNodes>
            0 -1 28 -4.9580270424485207e-03</internalNodes>
          <leafValues>
            -8.7289899587631226e-01 3.1425282359123230e-01</leafValues></_>
        <_>
          <internalNodes>
            0 -1 34 -5.2608707919716835e-03</internalNodes>
          <leafValues>
            6.9959592819213867e-01 -4.3755012750625610e-01</leafValues></_>
        <_>
          <internalNodes>
            0 -1 24 1.2816201196983457e-03</internalNodes>
          <leafValues>
            3.6108228564262390e-01 -8.0851429700851440e-01</leafValues></_>
        <_>
          <internalNodes>
            0 -1 31 6.8083181977272034e-03</internalNodes>
          <leafValues>
            -4.2021486163139343e-01 7.4553841352462769e-01</leafValues></_>
        <_>
          <internalNodes>
            0 -1 42 -5.5664274841547012e-03</internalNodes>
          <leafValues>
            4.1124752163887024e-01 -7.3232132196426392e-01</leafValues></_></weakClassifiers></_>
    <!-- stage 7 -->
    <_>
      <maxWeakCount>6</maxWeakCount>
      <stageThreshold>-7.3562520742416382e-01</stageThreshold>
      <weakClassifiers>
        <_>
          <internalNodes>
            0 -1 30 -1.6553249210119247e-02</internalNodes>
          <leafValues>
            -8.4285712242126465e-01 4.9538460373878479e-01</leafValues></_>
        <_>
          <internalNodes>
            0 -1 4 1.5620478370692581e-04</internalNodes>
          <leafValues>
            -8.6773836612701416e-01 2.9329320788383484e-01</leafValues></_>
        <_>
          <internalNodes>
            0 -1 21 2.0924615673720837e-03</internalNodes>
          <leafValues>
            -3.8159152865409851e-01 7.7929437160491943e-01</leafValues></_>
        <_>
          <internalNodes>
            0 -1 35 3.9348294376395643e-04</internalNodes>
          <leafValues>
            3.2261049747467041e-01 -9.1236311197280884e-01</leafValues></_>
        <_>
          <internalNodes>
            0 -1 39 3.7264954298734665e-03</internalNodes>
          <leafValues>
            -4.5391660928726196e-01 6.8164128065109253e-01</leafValues></_>
        <_>
          <internalNodes>
            0 -1 53 -3.7703535053879023e-04</internalNodes>
          <leafValues>
            -9.0801417827606201e-01 3.2683640718460083e-01</leafValues></_></weakClassifiers></_>
    <!-- stage 8 -->
    <_>
      <maxWeakCount>4</maxWeakCount>
      <stageThreshold>-1.0170536488294601e-01</stageThreshold>
      <weakClassifiers>
        <_>
          <internalNodes>
            0 -1 37 -8.2167115760967135e-04</internalNodes>
          <leafValues>
            -9.2592591047286987e-01 5.0229007005691528e-01</leafValues></_>
        <_>
          <internalNodes>
            0 -1 6 1.2086860078852624e-04</internalNodes>
          <leafValues>
            2.8204643726348877e-01 -8.9428281784057617e-01</leafValues></_>
        <_>
          <internalNodes>
            0 -1 1 1.9146798877045512e-04</internalNodes>
          <leafValues>
            2.1483859419822693e-01 -9.8441219329833984e-01</leafValues></_>
        <_>
          <internalNodes>
            0 -1 49 -1.4438398648053408e-03</internalNodes>
          <leafValues>
            3.2733553647994995e-01 -7.7388924360275269e-01</leafValues></_></weakClassifiers></_>
    <!-- stage 9 -->
    <_>
      <maxWeakCount>4</maxWeakCount>
      <stageThreshold>-3.0079916119575500e-01</stageThreshold>
      <weakClassifiers>
        <_>
          <internalNodes>
            0 -1 0 -2.5839037261903286e-03</internalNodes>
          <leafValues>
            -8.4375000000000000e-01 4.7129908204078674e-01</leafValues></_>
        <_>
          <internalNodes>
            0 -1 5 2.7238650363869965e-04</internalNodes>
          <leafValues>
            2.6296967267990112e-01 -8.8650345802307129e-01</leafValues></_>
        <_>
          <internalNodes>
            0 -1 50 5.2236691117286682e-03</internalNodes>
          <leafValues>
            -3.6336702108383179e-01 7.8836447000503540e-01</leafValues></_>
        <_>
          <internalNodes>
            0 -1 20 1.7691059038043022e-03</internalNodes>
          <leafValues>
            -3.7141877412796021e-01 6.4334821701049805e-01</leafValues></_></weakClassifiers></_>
    <!-- stage 10 -->
    <_>
      <maxWeakCount>7</maxWeakCount>
      <stageThreshold>-9.4227427244186401e-01</stageThreshold>
      <weakClassifiers>
        <_>
          <internalNodes>
            0 -1 33 6.8071752320975065e-04</internalNodes>
          <leafValues>
            -6.6304349899291992e-01 5.3795379400253296e-01</leafValues></_>
        <_>
          <internalNodes>
            0 -1 19 2.7536880224943161e-03</internalNodes>
          <leafValues>
            -6.5173476934432983e-01 3.7833091616630554e-01</leafValues></_>
        <_>
          <internalNodes>
            0 -1 12 9.8321512341499329e-03</internalNodes>
          <leafValues>
            -4.6702000498771667e-01 5.6783062219619751e-01</leafValues></_>
        <_>
          <internalNodes>
            0 -1 36 -7.6832133345305920e-04</internalNodes>
          <leafValues>
            5.2233392000198364e-01 -4.8462954163551331e-01</leafValues></_>
        <_>
          <internalNodes>
            0 -1 44 -6.0114944353699684e-03</internalNodes>
          <leafValues>
            7.2953265905380249e-01 -3.8105675578117371e-01</leafValues></_>
        <_>
          <internalNodes>
            0 -1 2 5.4579169955104589e-04</internalNodes>
          <leafValues>
            3.0846512317657471e-01 -9.0326958894729614e-01</leafValues></_>
        <_>
          <internalNodes>
            0 -1 52 -3.0136876739561558e-04</internalNodes>
          <leafValues>
            3.6189457774162292e-01 -6.7652004957199097e-01</leafValues></_></weakClassifiers></_>
    <!-- stage 11 -->
    <_>
      <maxWeakCount>6</maxWeakCount>
      <stageThreshold>-4.6534886956214905e-01</stageThreshold>
      <weakClassifiers>
        <_>
          <internalNodes>
            0 -1 8 1.2341851368546486e-02</internalNodes>
          <leafValues>
            4.8837208747863770e-01 -7.6551723480224609e-01</leafValues></_>
        <_>
          <internalNodes>
            0 -1 23 -9.4338186318054795e-04</internalNodes>
          <leafValues>
            -7.5809031724929810e-01 3.1883162260055542e-01</leafValues></_>
        <_>
          <internalNodes>
            0 -1 26 2.0177573896944523e-03</internalNodes>
          <leafValues>
            -3.7841382622718811e-01 6.8651789426803589e-01</leafValues></_>
        <_>
          <internalNodes>
            0 -1 14 -3.0069779604673386e-03</internalNodes>
          <leafValues>
            2.9347997903823853e-01 -8.9202314615249634e-01</leafValues></_>
        <_>
          <internalNodes>
            0 -1 51 2.1905461326241493e-03</internalNodes>
          <leafValues>
            -3.6705714464187622e-01 7.8039652109146118e-01</leafValues></_>
        <_>
          <internalNodes>
            0 -1 15 -1.3498587533831596e-02</internalNodes>
          <leafValues>
            -7.8031688928604126e-01 3.6494156718254089e-01</leafValues></_></weakClassifiers></_></stages>
  <features>
    <_>
      <rects>
        <_>
          0 0 3 1 -1.</_>
        <_>
          1 0 1 1 2.</_></rects>
      <tilted>0</tilted></_>
    <_>
      <rects>
        <_>
          0 1 1 4 -1.</_>
        <_>
          0 2 1 2 2.</_></rects>
      <tilted>0</tilted></_>
    <_>
      <rects>
        <_>
          0 14 1 6 -1.</_>
        <_>
          0 17 1 3 2.</_></rects>
      <tilted>0</tilted></_>
    <_>
      <rects>
        <_>
          1 0 1 8 -1.</_>
        <_>
          1 2 1 4 2.</_></rects>
      <tilted>0</tilted></_>
    <_>
      <rects>
        <_>
          2 4 71 4 -1.</_>
        <_>
          2 5 71 2 2.</_></rects>
      <tilted>0</tilted></_>
    <_>
      <rects>
        <_>
          3 7 11 2 -1.</_>
        <_>
          3 8 11 1 2.</_></rects>
      <tilted>0</tilted></_>
    <_>
      <rects>
        <_>
          3 10 1 4 -1.</_>
        <_>
          3 12 1 2 2.</_></rects>
      <tilted>0</tilted></_>
    <_>
      <rects>
        <_>
          4 0 24 4 -1.</_>
        <_>
          4 2 24 2 2.</_></rects>
      <tilted>0</tilted></_>
    <_>
      <rects>
        <_>
          4 0 72 2 -1.</_>
        <_>
          40 0 36 2 2.</_></rects>
      <tilted>0</tilted></_>
    <_>
      <rects>
        <_>
          7 18 65 2 -1.</_>
        <_>
          7 19 65 1 2.</_></rects>
      <tilted>0</tilted></_>
    <_>
      <rects>
        <_>
          9 18 65 2 -1.</_>
        <_>
          9 19 65 1 2.</_></rects>
      <tilted>0</tilted></_>
    <_>
      <rects>
        <_>
          11 0 22 4 -1.</_>
        <_>
          11 2 22 2 2.</_></rects>
      <tilted>0</tilted></_>
    <_>
      <rects>
        <_>
          11 18 38 2 -1.</_>
        <_>
          11 19 38 1 2.</_></rects>
      <tilted>0</tilted></_>
    <_>
      <rects>
        <_>
          12 0 44 4 -1.</_>
        <_>
          12 2 44 2 2.</_></rects>
      <tilted>0</tilted></_>
    <_>
      <rects>
        <_>
          13 0 6 1 -1.</_>
        <_>
          15 0 2 1 2.</_></rects>
      <tilted>0</tilted></_>
    <_>
      <rects>
        <_>
          13 2 36 5 -1.</_>
        <_>
          31 2 18 5 2.</_></rects>
      <tilted>0</tilted></_>
    <_>
      <rects>
        <_>
          13 8 36 2 -1.</_>
        <_>
          13 9 36 1 2.</_></rects>
      <tilted>0</tilted></_>
    <_>
      <rects>
        <_>
          14 0 51 8 -1.</_>
        <_>
          14 2 51 4 2.</_></rects>
      <tilted>0</tilted></_>
    <_>
      <rects>
        <_>
          17 3 37 4 -1.</_>
        <_>
          17 5 37 2 2.</_></rects>
      <tilted>0</tilted></_>
    <_>
      <rects>
        <_>
          19 0 42 3 -1.</_>
        <_>
          33 1 14 1 9.</_></rects>
      <tilted>0</tilted></_>
    <_>
      <rects>
        <_>
          20 13 4 6 -1.</_>
        <_>
          21 13 2 6 2.</_></rects>
      <tilted>0</tilted></_>
    <_>
      <rects>
        <_>
          20 14 4 4 -1.</_>
        <_>
          21 14 2 4 2.</_></rects>
      <tilted>0</tilted></_>
    <_>
      <rects>
        <_>
          22 10 9 6 -1.</_>
        <_>
          22 12 9 2 2.</_></rects>
      <tilted>0</tilted></_>
    <_>
      <rects>
        <_>
          23 19 26 1 -1.</_>
        <_>
          36 19 13 1 2.</_></rects>
      <tilted>0</tilted></_>
    <_>
      <rects>
        <_>
          24 0 26 1 -1.</_>
        <_>
          37 0 13 1 2.</_></rects>
      <tilted>0</tilted></_>
    <_>
      <rects>
        <_>
          24 10 44 8 -1.</_>
        <_>
          24 12 44 4 2.</_></rects>
      <tilted>0</tilted></_>
    <_>
      <rects>
        <_>
          25 3 4 4 -1.</_>
        <_>
          26 3 2 4 2.</_></rects>
      <tilted>0</tilted></_>
    <_>
      <rects>
        <_>
          25 6 4 13 -1.</_>
        <_>
          26 6 2 13 2.</_></rects>
      <tilted>0</tilted></_>
    <_>
      <rects>
        <_>
          26 0 34 1 -1.</_>
        <_>
          43 0 17 1 2.</_></rects>
      <tilted>0</tilted></_>
    <_>
      <rects>
        <_>
          26 3 4 16 -1.</_>
        <_>
          27 3 2 16 2.</_></rects>
      <tilted>0</tilted></_>
    <_>
      <rects>
        <_>
          29 8 25 12 -1.</_>
        <_>
          29 14 25 6 2.</_></rects>
      <tilted>0</tilted></_>
    <_>
      <rects>
        <_>
          29 12 8 4 -1.</_>
        <_>
          31 12 4 4 2.</_></rects>
      <tilted>0</tilted></_>
    <_>
      <rects>
        <_>
          30 14 7 6 -1.</_>
        <_>
          30 16 7 2 2.</_></rects>
      <tilted>0</tilted></_>
    <_>
      <rects>
        <_>
          33 5 36 4 -1.</_>
        <_>
          33 6 36 2 2.</_></rects>
      <tilted>0</tilted></_>
    <_>
      <rects>
        <_>
          33 8 6 10 -1.</_>
        <_>
          33 8 3 5 2.</_>
        <_>
          36 13 3 5 2.</_></rects>
      <tilted>0</tilted></_>
    <_>
      <rects>
        <_>
          33 13 4 2 -1.</_>
        <_>
          33 14 4 1 2.</_></rects>
      <tilted>0</tilted></_>
    <_>
      <rects>
        <_>
          33 14 8 1 -1.</_>
        <_>
          35 14 4 1 2.</_></rects>
      <tilted>0</tilted></_>
    <_>
      <rects>
        <_>
          34 0 14 1 -1.</_>
        <_>
          41 0 7 1 2.</_></rects>
      <tilted>0</tilted></_>
    <_>
      <rects>
        <_>
          34 1 4 19 -1.</_>
        <_>
          36 1 2 19 2.</_></rects>
      <tilted>0</tilted></_>
    <_>
      <rects>
        <_>
          36 5 11 4 -1.</_>
        <_>
          35 6 11 2 2.</_></rects>
      <tilted>1</tilted></_>
    <_>
      <rects>
        <_>
          36 16 16 4 -1.</_>
        <_>
          36 18 16 2 2.</_></rects>
      <tilted>0</tilted></_>
    <_>
      <rects>
        <_>
          37 0 7 4 -1.</_>
        <_>
          37 2 7 2 2.</_></rects>
      <tilted>0</tilted></_>
    <_>
      <rects>
        <_>
          37 12 31 6 -1.</_>
        <_>
          37 15 31 3 2.</_></rects>
      <tilted>0</tilted></_>
    <_>
      <rects>
        <_>
          40 0 3 6 -1.</_>
        <_>
          41 2 1 2 9.</_></rects>
      <tilted>0</tilted></_>
    <_>
      <rects>
        <_>
          40 0 4 9 -1.</_>
        <_>
          41 1 2 9 2.</_></rects>
      <tilted>1</tilted></_>
    <_>
      <rects>
        <_>
          40 3 33 9 -1.</_>
        <_>
          40 6 33 3 2.</_></rects>
      <tilted>0</tilted></_>
    <_>
      <rects>
        <_>
          42 16 22 4 -1.</_>
        <_>
          42 18 22 2 2.</_></rects>
      <tilted>0</tilted></_>
    <_>
      <rects>
        <_>
          47 13 4 5 -1.</_>
        <_>
          48 13 2 5 2.</_></rects>
      <tilted>0</tilted></_>
    <_>
      <rects>
        <_>
          49 3 8 6 -1.</_>
        <_>
          49 5 8 2 2.</_></rects>
      <tilted>0</tilted></_>
    <_>
      <rects>
        <_>
          50 0 6 4 -1.</_>
        <_>
          50 2 6 2 2.</_></rects>
      <tilted>0</tilted></_>
    <_>
      <rects>
        <_>
          52 1 4 16 -1.</_>
        <_>
          53 1 2 16 2.</_></rects>
      <tilted>0</tilted></_>
    <_>
      <rects>
        <_>
          54 12 4 6 -1.</_>
        <_>
          55 12 2 6 2.</_></rects>
      <tilted>0</tilted></_>
    <_>
      <rects>
        <_>
          62 18 14 2 -1.</_>
        <_>
          69 18 7 2 2.</_></rects>
      <tilted>0</tilted></_>
    <_>
      <rects>
        <_>
          65 13 7 2 -1.</_>
        <_>
          65 14 7 1 2.</_></rects>
      <tilted>0</tilted></_></features></cascade>
</opencv_storage>
